{"architecture": {"input_size": 19, "hidden_size": 64, "output_size": 1}, "state_dict": {"fc1.weight": [[-0.23326252400875092, 0.39642325043678284, 0.1587098091840744, 0.11024785786867142, -0.29569974541664124, -0.5591206550598145, 0.4398769438266754, 0.15459351241588593, 0.04333982989192009, 0.007175980135798454, 0.536273717880249, 0.038508135825395584, -0.06480710208415985, 0.3225814998149872, 0.4815354347229004, 0.4804750382900238, 0.26041749119758606, 0.4975182116031647, 0.19195106625556946], [0.21862898766994476, 0.1497826725244522, 0.07817157357931137, -0.14380045235157013, -0.1566600203514099, 0.0687263011932373, -0.2265688180923462, -0.030896594747900963, -0.23587077856063843, -0.1984785497188568, 0.07048506289720535, 0.0433584526181221, -0.06576616317033768, -0.019953252747654915, -0.030643193051218987, -0.15580947697162628, 0.08800043165683746, -0.2444947212934494, -0.15062986314296722], [0.20709234476089478, -0.10436418652534485, -0.45212963223457336, 0.1827845722436905, -0.11388055235147476, -0.18899963796138763, -0.060817647725343704, -0.3104870915412903, -0.3751973509788513, -0.19868578016757965, -0.26551228761672974, 0.09820939600467682, -0.40719836950302124, -0.2263251692056656, -0.041506003588438034, -0.023809019476175308, -0.34317877888679504, -0.009143547154963017, -0.3156706392765045], [0.1069599911570549, -0.271231472492218, -0.5958737134933472, 0.24210740625858307, 0.06132349744439125, -0.023730188608169556, -0.14685408771038055, -0.04937274008989334, -0.17687153816223145, -0.4344738721847534, -0.30783894658088684, -0.4539819657802582, -0.4873104989528656, -0.33245962858200073, -0.03548372536897659, -0.37446001172065735, -0.3573836386203766, -0.3250678777694702, -0.04121728986501694], [0.10767494142055511, 0.12596958875656128, 0.16098171472549438, -0.31661972403526306, 0.04324895516037941, -0.7119544744491577, -0.002013292396441102, 0.15330253541469574, -0.066780686378479, 0.10201723873615265, 0.39789286255836487, -0.04390173405408859, 0.37095898389816284, 0.20795480906963348, 0.07200679928064346, -0.0977969765663147, 0.3657335340976715, 0.2040509283542633, 0.2650776505470276], [-0.10130620002746582, -0.03421521931886673, 0.36803963780403137, -0.062497977167367935, 0.04187213256955147, 0.13138742744922638, -0.5844576358795166, 0.07868572324514389, -0.05218874290585518, 0.147174671292305, 0.1912223845720291, -0.46334242820739746, -0.11846058815717697, 0.02286507934331894, -0.5342541337013245, -0.08745042234659195, 0.638099730014801, 0.005098426714539528, 0.14433184266090393], [0.1662711352109909, 0.15309229493141174, -0.3013466000556946, -0.053305499255657196, -0.2387767732143402, 0.19005648791790009, -0.06100054085254669, -0.4799133539199829, -0.312835156917572, -0.2547851502895355, -0.05298804119229317, -0.08425777405500412, -0.49619799852371216, -0.24702134728431702, -0.1657351404428482, -0.6489913463592529, 0.10006220638751984, 0.05452781170606613, -0.5598427057266235], [-0.03458254039287567, 0.021019678562879562, -0.21954059600830078, 0.0644134059548378, 0.10120759159326553, -0.1978335976600647, 0.05522016063332558, -0.011833427473902702, 0.0746617466211319, -0.07090131938457489, 0.05723640322685242, -0.053224220871925354, 0.16221043467521667, 0.046947039663791656, 0.22469614446163177, 0.2863519489765167, 0.04702424630522728, 0.16909995675086975, 0.23654773831367493], [-0.1822604238986969, 0.008779323659837246, 0.14474420249462128, -0.08988320082426071, 0.038253214210271835, -0.09902217984199524, 0.06104152277112007, 0.029441094025969505, -0.27334529161453247, -0.003622105112299323, 0.28909948468208313, 0.2583591043949127, 0.06810495257377625, 0.3485114276409149, 0.19976069033145905, 0.2243155986070633, 0.21554331481456757, 0.2726527452468872, -0.10310966521501541], [-0.23310010135173798, -0.15267248451709747, 0.06351399421691895, -0.12018101662397385, 0.07223454117774963, -0.06179145723581314, 0.3379800021648407, 0.4213067591190338, -0.2731379568576813, 0.14331993460655212, 0.399158775806427, 0.21848827600479126, -0.0015965246129781008, 0.5259674787521362, 0.3766416013240814, 0.4543151557445526, -0.261893093585968, 0.3359964191913605, 0.42991945147514343], [0.2515435516834259, -0.12030327320098877, 0.4759521186351776, -0.7246838808059692, -0.6176992058753967, 0.1847062110900879, -0.07345523685216904, -0.6791491508483887, 0.1387874037027359, -0.2835269868373871, -0.17832258343696594, -0.5137555003166199, -0.05159039795398712, -0.4089258015155792, -0.5129101872444153, -0.27984619140625, -0.6179301142692566, 0.33086562156677246, 0.37987345457077026], [-0.32670578360557556, 0.03333348408341408, 0.14644742012023926, 0.14345620572566986, -0.1957581788301468, 0.4456497132778168, 0.3612976670265198, 0.4497651755809784, 0.08248337358236313, -0.020782237872481346, 0.07619798928499222, 0.1483595073223114, 0.22884522378444672, 0.4424791634082794, 0.34072548151016235, 0.29123178124427795, -0.11843687295913696, 0.42417439818382263, 0.23206818103790283], [0.31849128007888794, -0.09017512202262878, 0.13214971125125885, -0.3025932312011719, 0.39444950222969055, 0.39498239755630493, -0.37351518869400024, -0.18833670020103455, -0.02056499756872654, -0.23759746551513672, -0.4443025290966034, 0.04674709588289261, -0.5074489712715149, -0.11049237102270126, 0.11331170797348022, -0.44577687978744507, -0.02577797882258892, -0.3190837800502777, 0.02841610088944435], [0.41791248321533203, -0.5776946544647217, 0.21132799983024597, -0.12650208175182343, -0.15753285586833954, -0.13429123163223267, -0.5027018785476685, -0.1744111031293869, 0.004011423327028751, -0.16779817640781403, -0.2446548491716385, -0.37184610962867737, -0.07809542864561081, -0.4701295793056488, -0.2941558361053467, -0.068898506462574, -0.1728791445493698, -0.4094102680683136, -0.0721389576792717], [0.2563861310482025, 0.07097239047288895, -0.6227914690971375, -0.19743098318576813, -0.641145646572113, -0.17952701449394226, -0.2494724988937378, -0.14804860949516296, -0.14955349266529083, -0.26321056485176086, -0.5735815167427063, -0.6017626523971558, -0.12796105444431305, -0.7438659071922302, -0.06770689785480499, -0.34925711154937744, -0.056074030697345734, 0.11474534124135971, -0.6419976949691772], [-0.1417641043663025, -0.03340419381856918, 0.025964125990867615, -0.6494706869125366, 0.44128113985061646, -0.8472457528114319, 0.16512101888656616, 0.3945794999599457, -0.531116247177124, 0.1174863651394844, 0.32067373394966125, 0.3525778651237488, 0.1576511561870575, 0.06793496012687683, 0.09553499519824982, 0.2180223912000656, 0.35093042254447937, 0.22580602765083313, 0.3274476230144501], [0.2978692650794983, -0.05847957357764244, -0.3835843801498413, -0.2513110339641571, 0.06883557140827179, 0.1419781893491745, -0.10628693550825119, -0.25583693385124207, -0.3056836426258087, -0.39370235800743103, -0.31780806183815, 0.03122282214462757, -0.09012255072593689, -0.06099119782447815, -0.39607492089271545, -0.332245796918869, -0.044677454978227615, -0.1397581696510315, 0.030199149623513222], [-0.10001824051141739, 0.09071605652570724, -0.302120566368103, 0.03742923215031624, -0.07772123068571091, -0.20970240235328674, 0.3734995126724243, 0.3673662841320038, 0.3179924488067627, -0.0737474337220192, 0.29113632440567017, -0.27642443776130676, 0.15446308255195618, 0.202224001288414, 0.3448275327682495, 0.2001500129699707, 0.21290387213230133, 0.4958784878253937, 0.3161408305168152], [-0.01928872987627983, 0.0912150889635086, -0.03611917793750763, -0.06192156672477722, -0.4918381869792938, 0.8380047678947449, 0.18881316483020782, 0.2861451208591461, 0.32886770367622375, -0.1303057074546814, 0.3307989537715912, 0.4028104245662689, 0.08013542741537094, 0.24139592051506042, 0.2950197458267212, 0.3313210606575012, -0.0009491926757618785, 0.2721741497516632, 0.2722328305244446], [0.32016733288764954, 0.5855969190597534, -0.15093618631362915, -0.4834693968296051, -0.46499887108802795, 0.002748260274529457, -0.32163363695144653, -0.13414764404296875, -0.3611004948616028, -0.46590656042099, -0.05282379314303398, 0.07348520308732986, -0.4416697323322296, -0.1442667543888092, -0.28747084736824036, -0.3918039798736572, -0.32332751154899597, -0.07556812465190887, 0.15409564971923828], [0.3145073652267456, -0.3215504288673401, 0.08999758958816528, 0.015569409355521202, 0.20875239372253418, -0.03615987300872803, -0.2695307433605194, -0.13474421203136444, -0.0051996721886098385, -0.2869964838027954, 0.045756641775369644, -0.4655161201953888, -0.16373823583126068, -0.33350375294685364, -0.1437508463859558, -0.04469560086727142, -0.23349444568157196, -0.16811363399028778, 0.06559382379055023], [-0.14089058339595795, -0.08267592638731003, 0.29821521043777466, 0.1785343885421753, -0.3964541256427765, 0.4050975441932678, 0.1801731437444687, -0.1135985404253006, -0.003962107002735138, 0.05141206830739975, -0.022335262969136238, -0.011045144870877266, -0.10091481357812881, 0.4212094843387604, -0.060801275074481964, 0.17006173729896545, 0.10596690326929092, 0.09779579937458038, 0.1684986650943756], [-0.2477625459432602, 0.07445310801267624, 0.0803188607096672, 0.008291449397802353, -0.12092270702123642, -0.3557890057563782, 0.3318672478199005, 0.1294243484735489, -0.03860937058925629, -0.1594780832529068, 0.4937859773635864, 0.1774294525384903, 0.2807082235813141, 0.18141284584999084, 0.16041767597198486, 0.25431135296821594, 0.1297931969165802, 0.4147944152355194, 0.2148767113685608], [-0.3735685348510742, -0.35512521862983704, 0.3167169690132141, 0.3046339154243469, -0.301712304353714, -0.06976453959941864, 0.28392770886421204, 0.24644075334072113, 0.12117832154035568, -0.21442468464374542, 0.2081417739391327, -0.0012524849735200405, 0.3121227025985718, 0.06129998341202736, 0.14607201516628265, 0.32567456364631653, -0.3202638626098633, 0.4669661819934845, 0.2090047299861908], [-0.06123671680688858, -0.24824665486812592, 0.1964459866285324, 0.07788556069135666, 0.03237729147076607, -0.2060651034116745, 0.38575479388237, 0.016550425440073013, -0.08366130292415619, -0.23549120128154755, 0.2512458264827728, 0.3463831841945648, 0.06492992490530014, 0.30770960450172424, 0.27365487813949585, 0.204179048538208, 0.13112513720989227, 0.11469181627035141, 0.16612282395362854], [0.01609415002167225, 0.38454359769821167, -0.016213567927479744, -0.21321888267993927, 0.2837398648262024, 0.35041284561157227, -0.17796698212623596, -0.40371978282928467, 0.09443660825490952, -0.47925394773483276, -0.32545170187950134, 0.024707214906811714, -0.13808608055114746, -0.21767912805080414, -0.0942365750670433, 0.004393346607685089, -0.36443910002708435, -0.21861505508422852, -0.24491752684116364], [0.4745219945907593, -0.010523781180381775, 0.09540099650621414, -0.37296414375305176, 0.19256310164928436, 0.09960675984621048, -0.1806478351354599, 0.24373137950897217, -0.3958103656768799, -0.12235279381275177, -0.08256600797176361, -0.6200053095817566, -0.2619628608226776, -0.008324416354298592, -0.18936456739902496, -0.37524205446243286, -0.37027156352996826, -0.35048261284828186, -0.39164412021636963], [-0.23758628964424133, -0.06131712347269058, -0.3118416965007782, -0.2218782603740692, 0.1669658124446869, 0.4049166440963745, 0.5223637819290161, 0.385663241147995, 0.31470757722854614, 0.24614600837230682, 0.38626906275749207, 0.30733516812324524, -0.2951965928077698, 0.17454250156879425, 0.353756308555603, 0.2532941699028015, 0.3158901333808899, 0.29925063252449036, 0.33246755599975586], [-0.15970087051391602, -0.5117287635803223, -0.334795743227005, 0.1107310876250267, 0.08296697586774826, 0.22317315638065338, 0.4786832630634308, 0.6355313658714294, 0.2534083127975464, 0.10483144968748093, 0.18786069750785828, 0.19073666632175446, 0.1436794549226761, 0.5423077940940857, 0.21594607830047607, 0.31994014978408813, 0.4296968877315521, 0.13091649115085602, 0.2665942907333374], [-0.25084999203681946, 0.22430934011936188, 0.03076086938381195, -0.0015754417981952429, 0.11988239735364914, 0.35652726888656616, 0.4755799174308777, 0.5711925029754639, 0.23136433959007263, 0.3840082287788391, 0.4986097812652588, 0.1201275959610939, 0.34165093302726746, 0.4785890579223633, 0.31040409207344055, 0.18086643517017365, 0.31658995151519775, 0.19893088936805725, 0.14663012325763702], [0.3754810690879822, 0.04488784074783325, -0.5303342342376709, 0.08372931182384491, 0.17993994057178497, 0.10040702670812607, -0.44146257638931274, -0.22218620777130127, 0.05493093654513359, -0.594127893447876, 0.16902968287467957, -0.40942054986953735, -0.20715603232383728, -0.2754231095314026, -0.44115450978279114, -0.05215441435575485, -0.4286767244338989, -0.4793119728565216, -0.04717399179935455], [0.30307942628860474, -0.0022599443327635527, 0.1745176911354065, 0.18492819368839264, 0.3611639440059662, -0.19999466836452484, -0.38710537552833557, -0.34183797240257263, -0.2116866260766983, -0.10205378383398056, -0.2315470576286316, -0.07170676440000534, -0.22004334628582, -0.03722893074154854, -0.29215186834335327, -0.14867936074733734, -0.40198683738708496, 0.026187581941485405, 0.016732120886445045], [-0.10300853103399277, -0.28953707218170166, 0.3710414171218872, 0.30243825912475586, 0.05045872554183006, 0.1415625512599945, -0.1132056787610054, -0.2816965579986572, -0.05062403529882431, -0.5705574750900269, -0.10707436501979828, -0.1842418611049652, -0.2984439432621002, -0.44076886773109436, 0.12172511219978333, -0.08946610242128372, -0.045417752116918564, -0.22562839090824127, -0.28612053394317627], [0.18146848678588867, -0.0034036636352539062, -0.229597270488739, -0.5424840450286865, -0.7720043063163757, -0.14210784435272217, -0.30771371722221375, -0.2589896023273468, -0.3715493679046631, -0.4380350708961487, -0.06611216068267822, -0.11333271861076355, -0.11296570301055908, -0.2763011157512665, -0.11751166731119156, -0.15266798436641693, -0.45285776257514954, -0.009349863044917583, -0.008616074919700623], [-0.3317548930644989, 0.09608448296785355, -0.05978454276919365, 0.04124538227915764, 0.17760421335697174, -0.3721989691257477, 0.22932183742523193, 0.11232134699821472, 0.05600576475262642, 0.26923614740371704, 0.15656016767024994, 0.039249345660209656, 0.0023510828614234924, 0.3158833384513855, 0.26913756132125854, 0.04363067075610161, 0.0775875523686409, 0.3319587707519531, 0.11890194565057755], [0.07406537234783173, 0.095488540828228, -0.48901593685150146, -0.1585991382598877, 0.17179055511951447, -0.1002521887421608, 0.43660634756088257, 0.4372269809246063, 0.3249651789665222, 0.13494174182415009, 0.553639829158783, 0.35969769954681396, 0.2998623251914978, 0.5021497011184692, 0.5490127205848694, 0.4535788595676422, 0.5213693976402283, 0.5498250126838684, 0.38212648034095764], [0.030794741585850716, -0.042801495641469955, -0.053640179336071014, 0.08820383995771408, 0.34549903869628906, 0.29869529604911804, -0.15868617594242096, 0.205982506275177, -0.4484761953353882, -0.4309244751930237, -0.3059937655925751, -0.3236786425113678, 0.0932098999619484, -0.4125952422618866, -0.01400736439973116, -0.01993587240576744, -0.1686076819896698, -0.5834330916404724, -0.0127260722219944], [-0.25461944937705994, -0.4589673578739166, -0.23481717705726624, 0.44410428404808044, -0.026366721838712692, 0.22447121143341064, -0.011113746091723442, -0.42748188972473145, -0.4447874128818512, -0.49865224957466125, -0.41494712233543396, 0.05203544348478317, 0.04813602194190025, -0.3008216321468353, -0.25324752926826477, -0.4294374883174896, 0.027560295537114143, -0.12093302607536316, -0.07793830335140228], [-0.17396599054336548, 0.018653545528650284, -0.060310766100883484, -0.06316689401865005, 0.20594173669815063, -0.45313599705696106, 0.04087863489985466, 0.1929379552602768, 0.32247596979141235, 0.1043923944234848, 0.14121007919311523, 0.23506180942058563, 0.28577670454978943, 0.11759530007839203, 0.44773977994918823, 0.07954591512680054, 0.17394401133060455, 0.3362642526626587, 0.08002548664808273], [-0.07765743136405945, 0.059892039746046066, -0.804633617401123, 0.17397819459438324, -0.06937766820192337, -0.019290514290332794, 0.21805745363235474, -0.164838045835495, 0.06561868637800217, -0.7565481066703796, -0.5818532705307007, -0.09299764037132263, -0.1260734349489212, -0.45989590883255005, -0.07396566867828369, -0.16243834793567657, -0.5511607527732849, -0.3362262547016144, -0.16011470556259155], [0.13744516670703888, -0.37208041548728943, -0.2871277332305908, -0.06144086271524429, 0.22059693932533264, 0.0738825798034668, -0.35155829787254333, -0.2293982058763504, -0.3439086079597473, -0.035413604229688644, -0.13103584945201874, -0.2028418779373169, -0.3654020428657532, 0.11624407023191452, -0.3378976881504059, -0.31072744727134705, -0.37765786051750183, -0.12893693149089813, -0.0023807301186025143], [-0.11138175427913666, 0.08189450949430466, 0.04920929670333862, -0.03506164252758026, -0.0212701503187418, 0.24442404508590698, 0.3997868001461029, 0.2749677002429962, 0.23964639008045197, 0.08321485668420792, 0.4178321063518524, 0.34213000535964966, -0.09831878542900085, 0.09132840484380722, 0.17567433416843414, 0.29735010862350464, 0.3875822126865387, 0.3974974453449249, 0.22453007102012634], [-0.15609949827194214, 0.17782147228717804, -0.006023017223924398, 0.23871636390686035, -0.27409255504608154, -0.12136861681938171, 0.13223567605018616, 0.25291013717651367, 0.21073973178863525, 0.09872692823410034, 0.3428718149662018, -0.1178426444530487, 0.09222101420164108, 0.09172811359167099, 0.34741896390914917, 0.2621231973171234, 0.04479917883872986, 0.4440493583679199, 0.10988113284111023], [0.2041575014591217, -0.4173150658607483, -0.22660332918167114, 0.076275534927845, -0.1848975270986557, -0.15373453497886658, 0.06505971401929855, -0.11006007343530655, -0.09657380729913712, -0.012188022956252098, -0.21852557361125946, -0.3507098853588104, -0.048612095415592194, -0.04061287268996239, -0.2684824764728546, -0.01988651230931282, -0.30556440353393555, -0.4445651173591614, -0.22813338041305542], [-0.029405279085040092, 0.14119361340999603, 0.10909957438707352, -0.21927441656589508, 0.037336450070142746, -0.18857567012310028, 0.2072758674621582, 0.28095680475234985, -0.4329390227794647, 0.15853868424892426, 0.37911197543144226, 0.2016211897134781, 0.09918104857206345, 0.4464152157306671, 0.35280948877334595, 0.2953553795814514, 0.28438907861709595, 0.28876635432243347, -0.22330604493618011], [-0.11986064910888672, -0.2614332437515259, -0.2416687160730362, -0.2599892318248749, 0.05442661792039871, 0.6630926728248596, 0.18344490230083466, 0.2109973132610321, 0.23487883806228638, 0.13354165852069855, 0.23621098697185516, 0.5656871795654297, 0.2163381725549698, 0.2278159260749817, 0.5496136546134949, 0.2659042179584503, 0.21344290673732758, 0.3309870958328247, 0.31522977352142334], [-0.11366821825504303, 0.041494838893413544, -0.011500487104058266, -0.06333751976490021, 0.08710018545389175, -0.07730863988399506, 0.19554844498634338, 0.21466779708862305, 0.1587914079427719, 0.11678450554609299, 0.22158797085285187, 0.14009666442871094, 0.00763392448425293, 0.30950096249580383, 0.21373538672924042, 0.24265557527542114, 0.2232993245124817, 0.22873032093048096, 0.24124549329280853], [0.04159523546695709, -0.5607240200042725, 0.22373558580875397, -0.31338945031166077, -0.10409112274646759, -0.11750838905572891, 0.1074451208114624, 0.38814428448677063, 0.27969634532928467, 0.034591615200042725, 0.0032109301537275314, 0.1921643614768982, 0.1966554969549179, 0.12934887409210205, 0.31811296939849854, -0.1051492840051651, 0.31070107221603394, 0.20708200335502625, 0.26791247725486755], [0.38345178961753845, -0.15217150747776031, 0.2183198481798172, 0.5562933087348938, -0.6288449764251709, 0.28752413392066956, 0.4000789225101471, 0.2172117829322815, 0.26227742433547974, 0.09255990386009216, -0.07394051551818848, 0.30455276370048523, 0.30320408940315247, 0.3351335823535919, -0.010408679954707623, 0.11321419477462769, 0.14952901005744934, 0.09268200397491455, 0.26868900656700134], [0.5392543077468872, 0.1680622547864914, -0.6746816039085388, -0.4126577377319336, -0.6481946706771851, 0.09530501812696457, -0.3367975354194641, -0.20478671789169312, -0.007626482751220465, -0.23887905478477478, -0.5202952027320862, -0.29230329394340515, -0.04121307656168938, -0.3992471396923065, -0.42054641246795654, -0.11544486880302429, -0.42363497614860535, -0.35657864809036255, -0.6435039639472961], [0.1534401923418045, -0.5064367651939392, -0.08310829102993011, 0.15210819244384766, 0.37234431505203247, 0.40056174993515015, -0.4216674864292145, 0.12607142329216003, -0.10033633559942245, -0.08064265549182892, -0.2141229808330536, 0.08618059754371643, 0.022519374266266823, -0.20179913938045502, -0.05223838612437248, -0.19057656824588776, -0.28097671270370483, -0.031094828620553017, -0.44807401299476624], [0.29696714878082275, -0.6107214689254761, -0.5548006296157837, 0.08464837819337845, 0.3866111934185028, -0.09561227262020111, -0.1892976462841034, -0.11724972724914551, -0.1439259946346283, -0.21781232953071594, 0.0518498532474041, -0.1547713279724121, -0.17115995287895203, -0.006116687320172787, -0.4628836512565613, -0.3123214840888977, -0.11805256456136703, -0.4631269872188568, -0.16037555038928986], [0.17091824114322662, -0.1729758232831955, -0.2365700602531433, 0.5037335157394409, 0.15649543702602386, -0.2985214293003082, -0.19696524739265442, -0.21016937494277954, -0.3298378586769104, -0.17859508097171783, -0.17053508758544922, -0.27248942852020264, -0.40639397501945496, -0.17612934112548828, -0.3263187110424042, -0.3282085955142975, -0.09402788430452347, -0.02998785674571991, -0.4149635136127472], [-0.06292292475700378, 0.10323069244623184, -0.10484619438648224, 0.18028932809829712, -0.409969300031662, 0.4450899362564087, 0.40890562534332275, 0.16819246113300323, 0.49133679270744324, -0.13728362321853638, 0.28561317920684814, 0.20766045153141022, -0.2562295198440552, 0.2923661768436432, 0.36529767513275146, 0.42487117648124695, 0.16444745659828186, 0.24405701458454132, 0.38641679286956787], [-0.2589414715766907, -0.02553708665072918, -0.05555243790149689, 0.10500802099704742, 0.11879481375217438, -0.15451230108737946, 0.018505532294511795, 0.21581032872200012, 0.3021808862686157, 0.215673565864563, 0.23169685900211334, 0.3287324011325836, 0.22851715981960297, 0.05329078435897827, 0.16785025596618652, 0.34349000453948975, 0.10105178505182266, 0.3450358510017395, 0.04333224520087242], [-0.01411195658147335, 0.5149317383766174, 0.1607600748538971, 0.43604573607444763, 0.27363112568855286, 0.088236004114151, -0.3250942528247833, -0.5892815589904785, 0.06826609373092651, -0.5015407204627991, -0.13490736484527588, -0.08391881734132767, -0.5576706528663635, -0.002631134120747447, -0.6111974716186523, -0.3357468247413635, -0.018369119614362717, 0.008908389136195183, -0.09945899248123169], [-0.2963799834251404, 0.04598461836576462, -0.03737499937415123, -0.08055328577756882, -0.0315534844994545, 0.330868124961853, -0.09617254137992859, 0.228495255112648, 0.31721240282058716, 0.13148245215415955, 0.003606614889577031, -0.06921835988759995, 0.14917978644371033, 0.3785339593887329, 0.10199426859617233, -0.020496070384979248, 0.2145572453737259, 0.4031204283237457, -0.01545315608382225], [-0.2039368599653244, -0.009341842494904995, 0.007582264021039009, 0.036566536873579025, 0.05126276984810829, 0.1276695728302002, 0.3214057683944702, 0.06667356193065643, 0.11764085292816162, -8.158135460689664e-05, 0.2125372439622879, 0.3074735403060913, -0.0794002115726471, 0.018364746123552322, 0.2499074935913086, 0.14850933849811554, 0.26415833830833435, 0.3375610113143921, 0.16280804574489594], [-0.015990594401955605, -0.3384159505367279, -0.2432020604610443, 0.010734346695244312, -0.038177262991666794, 0.3712979555130005, -0.037922896444797516, 0.10430017113685608, 0.2710510194301605, 0.1265028715133667, 0.22200730443000793, 0.3205632269382477, 0.2542724907398224, 0.34599360823631287, 0.3507267236709595, 0.1262257844209671, 0.209509938955307, 0.23034091293811798, 0.16872675716876984], [-0.027083829045295715, -0.18371550738811493, 0.1281973123550415, 0.44111356139183044, -0.04015149548649788, -0.029964227229356766, -0.29297003149986267, -0.24674490094184875, -0.015331462025642395, -0.3330155313014984, -0.05224452167749405, -0.43625161051750183, -0.5388506054878235, 0.011441375128924847, -0.050678178668022156, -0.17184533178806305, 0.030274484306573868, -0.3880324363708496, -0.41184526681900024], [-0.13046804070472717, 0.03470936045050621, 0.0028591002337634563, 0.0028359200805425644, 0.0952252745628357, 0.09262809157371521, 0.4457089304924011, 0.33326059579849243, 0.15845833718776703, 0.10422512143850327, 0.23277638852596283, 0.31007158756256104, 0.15548844635486603, 0.3035000264644623, 0.27413466572761536, 0.32788535952568054, 0.3040960133075714, 0.43398869037628174, 0.24680805206298828], [0.16393838822841644, -0.05933116748929024, 0.06612652540206909, 0.30901581048965454, 0.13024544715881348, 0.497344970703125, -0.09289858490228653, 0.24453267455101013, 0.048626404255628586, -0.019854310899972916, 0.19090357422828674, 0.052518080919981, -0.05046994239091873, 0.31758883595466614, -0.014850365929305553, -0.07061680406332016, 0.006847202777862549, 0.41467875242233276, -0.06900696456432343], [0.23988518118858337, -0.4530598521232605, -0.24826109409332275, 0.17706263065338135, -0.5498847365379333, -0.3058834373950958, -0.17650741338729858, 0.4249925911426544, -0.48190855979919434, 0.15726858377456665, -0.19789691269397736, 0.28195852041244507, -0.29353588819503784, 0.09498972445726395, -0.3322601020336151, 0.136366605758667, 0.4021620452404022, 0.052569255232810974, 0.2553952932357788], [-0.19250629842281342, -0.008291695266962051, 0.16564057767391205, -0.024244828149676323, -0.1841549277305603, 0.4507688283920288, 0.5383708477020264, 0.2910430133342743, 0.03781411796808243, -0.36151131987571716, 0.27402397990226746, 0.1450236439704895, -0.3339914381504059, -0.0715414360165596, 0.11078064888715744, 0.27158594131469727, 0.09182038903236389, 0.1998181939125061, 0.33170753717422485]], "fc1.bias": [0.013179905712604523, 0.32347333431243896, 0.18472084403038025, 0.49307310581207275, -0.15810668468475342, -0.1366812288761139, 0.36395663022994995, 0.10258340835571289, -0.016306361183524132, -0.16300612688064575, 0.8114721775054932, 0.11447930335998535, 0.46785208582878113, 0.43334728479385376, 0.6344879269599915, -0.09313113987445831, 0.44487857818603516, -1.0732383088907227e-05, 0.09726619720458984, 0.07142848521471024, 0.42211052775382996, -0.19789017736911774, 0.24155490100383759, -0.13250957429409027, -0.05534779652953148, 0.45448896288871765, 0.217963308095932, 0.07085124403238297, -0.06035155430436134, 0.17557121813297272, 0.23354172706604004, 0.05254703015089035, 0.644562304019928, 0.36032533645629883, 0.1362202763557434, 0.012620915658771992, 0.38259831070899963, 0.3947192430496216, 0.11678018420934677, 0.6619518399238586, 0.08614566177129745, 0.09441503882408142, -0.007347380742430687, 0.20307527482509613, -0.16010920703411102, 0.21957792341709137, 0.181295707821846, -0.12948741018772125, 0.043781790882349014, 0.4365432858467102, 0.2843779921531677, 0.48114076256752014, 0.43396180868148804, 0.007470275275409222, 0.2241712212562561, 0.33491504192352295, -0.15110065042972565, 0.19487112760543823, 0.027203673496842384, 0.5473545789718628, 0.13652518391609192, -0.2101254016160965, 0.2487451434135437, 0.026819048449397087], "fc2.weight": [[-0.30107173323631287, 0.10373441874980927, 0.2993934154510498, 0.26263585686683655, -0.3425312340259552, 0.2041800320148468, 0.35244128108024597, -0.2389596700668335, -0.3014174699783325, -0.19521744549274445, 0.5477315187454224, -0.19100815057754517, 0.3384087383747101, 0.2737736999988556, 0.4044751524925232, -0.3627592921257019, 0.2771950662136078, -0.2838470935821533, -0.2699027359485626, 0.41529300808906555, 0.32080620527267456, -0.35693931579589844, -0.24549922347068787, -0.16414079070091248, -0.3756817579269409, 0.3844277560710907, 0.24679331481456757, -0.20261581242084503, -0.3103751540184021, -0.22561772167682648, 0.3218792974948883, 0.29449430108070374, 0.29069915413856506, 0.3651214838027954, -0.2741030752658844, -0.45821207761764526, 0.38249871134757996, 0.39714187383651733, -0.21686258912086487, 0.32761555910110474, 0.330130934715271, -0.2785211205482483, -0.340381920337677, 0.3693128824234009, -0.35191524028778076, -0.22108927369117737, -0.3072696328163147, -0.3710854947566986, -0.18454405665397644, 0.3632867932319641, 0.35141363739967346, 0.28158342838287354, 0.22945360839366913, -0.301325261592865, -0.23513402044773102, 0.46377265453338623, -0.28059351444244385, -0.27552542090415955, -0.36486950516700745, 0.37896621227264404, -0.24740324914455414, -0.228785902261734, 0.3115222752094269, -0.37892642617225647]], "fc2.bias": [0.09786786139011383]}}